<?xml version="1.0" encoding="UTF-8" standalone="yes"?>
<PMML xmlns="http://www.dmg.org/PMML-4_4" xmlns:data="http://jpmml.org/jpmml-model/InlineTable" version="4.4">
	<Header>
		<Application name="JPMML-SkLearn" version="1.6.35"/>
		<Timestamp>2022-03-19T17:09:37Z</Timestamp>
	</Header>
	<MiningBuildTask>
		<Extension name="repr">PMMLPipeline(steps=[('classifier', RandomForestClassifier(n_estimators=6, random_state=10))])</Extension>
	</MiningBuildTask>
	<DataDictionary>
		<DataField name="Arrangement" optype="categorical" dataType="integer">
			<Value value="1"/>
			<Value value="2"/>
			<Value value="3"/>
			<Value value="4"/>
			<Value value="5"/>
		</DataField>
		<DataField name="Aspect Ratio" optype="continuous" dataType="float"/>
		<DataField name="Height" optype="continuous" dataType="float"/>
		<DataField name="Object Shape" optype="continuous" dataType="float"/>
	</DataDictionary>
	<MiningModel functionName="classification" algorithmName="sklearn.ensemble._forest.RandomForestClassifier">
		<MiningSchema>
			<MiningField name="Arrangement" usageType="target"/>
			<MiningField name="Height"/>
			<MiningField name="Aspect Ratio"/>
			<MiningField name="Object Shape"/>
		</MiningSchema>
		<Output>
			<OutputField name="probability(1)" optype="continuous" dataType="double" feature="probability" value="1"/>
			<OutputField name="probability(2)" optype="continuous" dataType="double" feature="probability" value="2"/>
			<OutputField name="probability(3)" optype="continuous" dataType="double" feature="probability" value="3"/>
			<OutputField name="probability(4)" optype="continuous" dataType="double" feature="probability" value="4"/>
			<OutputField name="probability(5)" optype="continuous" dataType="double" feature="probability" value="5"/>
		</Output>
		<LocalTransformations>
			<DerivedField name="double(Height)" optype="continuous" dataType="double">
				<FieldRef field="Height"/>
			</DerivedField>
			<DerivedField name="double(Aspect Ratio)" optype="continuous" dataType="double">
				<FieldRef field="Aspect Ratio"/>
			</DerivedField>
			<DerivedField name="double(Object Shape)" optype="continuous" dataType="double">
				<FieldRef field="Object Shape"/>
			</DerivedField>
		</LocalTransformations>
		<Segmentation multipleModelMethod="average">
			<Segment id="1">
				<True/>
				<TreeModel functionName="classification" missingValueStrategy="nullPrediction">
					<MiningSchema>
						<MiningField name="double(Height)"/>
						<MiningField name="double(Aspect Ratio)"/>
						<MiningField name="double(Object Shape)"/>
					</MiningSchema>
					<Node>
						<True/>
						<Node>
							<SimplePredicate field="double(Height)" operator="lessOrEqual" value="65.0"/>
							<Node>
								<SimplePredicate field="double(Aspect Ratio)" operator="lessOrEqual" value="3.5"/>
								<Node>
									<SimplePredicate field="double(Height)" operator="lessOrEqual" value="35.0"/>
									<Node score="1" recordCount="7">
										<SimplePredicate field="double(Object Shape)" operator="lessOrEqual" value="0.5"/>
										<ScoreDistribution value="1" recordCount="7"/>
										<ScoreDistribution value="2" recordCount="0"/>
										<ScoreDistribution value="3" recordCount="0"/>
										<ScoreDistribution value="4" recordCount="0"/>
										<ScoreDistribution value="5" recordCount="0"/>
									</Node>
									<Node>
										<SimplePredicate field="double(Aspect Ratio)" operator="lessOrEqual" value="0.375"/>
										<Node score="1" recordCount="1">
											<SimplePredicate field="double(Height)" operator="lessOrEqual" value="25.0"/>
											<ScoreDistribution value="1" recordCount="1"/>
											<ScoreDistribution value="2" recordCount="0"/>
											<ScoreDistribution value="3" recordCount="0"/>
											<ScoreDistribution value="4" recordCount="0"/>
											<ScoreDistribution value="5" recordCount="0"/>
										</Node>
										<Node score="2" recordCount="2">
											<True/>
											<ScoreDistribution value="1" recordCount="0"/>
											<ScoreDistribution value="2" recordCount="2"/>
											<ScoreDistribution value="3" recordCount="0"/>
											<ScoreDistribution value="4" recordCount="0"/>
											<ScoreDistribution value="5" recordCount="0"/>
										</Node>
									</Node>
									<Node score="1" recordCount="6">
										<True/>
										<ScoreDistribution value="1" recordCount="6"/>
										<ScoreDistribution value="2" recordCount="0"/>
										<ScoreDistribution value="3" recordCount="0"/>
										<ScoreDistribution value="4" recordCount="0"/>
										<ScoreDistribution value="5" recordCount="0"/>
									</Node>
								</Node>
								<Node>
									<SimplePredicate field="double(Object Shape)" operator="lessOrEqual" value="0.5"/>
									<Node>
										<SimplePredicate field="double(Aspect Ratio)" operator="lessOrEqual" value="0.625"/>
										<Node score="3" recordCount="4">
											<SimplePredicate field="double(Height)" operator="lessOrEqual" value="50.0"/>
											<ScoreDistribution value="1" recordCount="0"/>
											<ScoreDistribution value="2" recordCount="0"/>
											<ScoreDistribution value="3" recordCount="4"/>
											<ScoreDistribution value="4" recordCount="0"/>
											<ScoreDistribution value="5" recordCount="0"/>
										</Node>
										<Node score="1" recordCount="1">
											<True/>
											<ScoreDistribution value="1" recordCount="1"/>
											<ScoreDistribution value="2" recordCount="0"/>
											<ScoreDistribution value="3" recordCount="0"/>
											<ScoreDistribution value="4" recordCount="0"/>
											<ScoreDistribution value="5" recordCount="0"/>
										</Node>
									</Node>
									<Node score="1" recordCount="6">
										<SimplePredicate field="double(Aspect Ratio)" operator="lessOrEqual" value="2.0"/>
										<ScoreDistribution value="1" recordCount="6"/>
										<ScoreDistribution value="2" recordCount="0"/>
										<ScoreDistribution value="3" recordCount="0"/>
										<ScoreDistribution value="4" recordCount="0"/>
										<ScoreDistribution value="5" recordCount="0"/>
									</Node>
									<Node score="4" recordCount="1">
										<SimplePredicate field="double(Height)" operator="lessOrEqual" value="55.0"/>
										<ScoreDistribution value="1" recordCount="0"/>
										<ScoreDistribution value="2" recordCount="0"/>
										<ScoreDistribution value="3" recordCount="0"/>
										<ScoreDistribution value="4" recordCount="1"/>
										<ScoreDistribution value="5" recordCount="0"/>
									</Node>
									<Node score="1" recordCount="1">
										<True/>
										<ScoreDistribution value="1" recordCount="1"/>
										<ScoreDistribution value="2" recordCount="0"/>
										<ScoreDistribution value="3" recordCount="0"/>
										<ScoreDistribution value="4" recordCount="0"/>
										<ScoreDistribution value="5" recordCount="0"/>
									</Node>
								</Node>
								<Node>
									<SimplePredicate field="double(Height)" operator="lessOrEqual" value="55.0"/>
									<Node score="3" recordCount="3">
										<SimplePredicate field="double(Aspect Ratio)" operator="lessOrEqual" value="0.625"/>
										<ScoreDistribution value="1" recordCount="0"/>
										<ScoreDistribution value="2" recordCount="0"/>
										<ScoreDistribution value="3" recordCount="3"/>
										<ScoreDistribution value="4" recordCount="0"/>
										<ScoreDistribution value="5" recordCount="0"/>
									</Node>
									<Node score="1" recordCount="3">
										<SimplePredicate field="double(Aspect Ratio)" operator="lessOrEqual" value="2.5"/>
										<ScoreDistribution value="1" recordCount="3"/>
										<ScoreDistribution value="2" recordCount="0"/>
										<ScoreDistribution value="3" recordCount="0"/>
										<ScoreDistribution value="4" recordCount="0"/>
										<ScoreDistribution value="5" recordCount="0"/>
									</Node>
									<Node score="2" recordCount="2">
										<True/>
										<ScoreDistribution value="1" recordCount="0"/>
										<ScoreDistribution value="2" recordCount="2"/>
										<ScoreDistribution value="3" recordCount="0"/>
										<ScoreDistribution value="4" recordCount="0"/>
										<ScoreDistribution value="5" recordCount="0"/>
									</Node>
								</Node>
								<Node>
									<SimplePredicate field="double(Aspect Ratio)" operator="lessOrEqual" value="2.5"/>
									<Node score="1" recordCount="3">
										<SimplePredicate field="double(Aspect Ratio)" operator="lessOrEqual" value="1.125"/>
										<ScoreDistribution value="1" recordCount="3"/>
										<ScoreDistribution value="2" recordCount="0"/>
										<ScoreDistribution value="3" recordCount="0"/>
										<ScoreDistribution value="4" recordCount="0"/>
										<ScoreDistribution value="5" recordCount="0"/>
									</Node>
									<Node score="2" recordCount="2">
										<True/>
										<ScoreDistribution value="1" recordCount="0"/>
										<ScoreDistribution value="2" recordCount="2"/>
										<ScoreDistribution value="3" recordCount="0"/>
										<ScoreDistribution value="4" recordCount="0"/>
										<ScoreDistribution value="5" recordCount="0"/>
									</Node>
								</Node>
								<Node score="1" recordCount="4">
									<True/>
									<ScoreDistribution value="1" recordCount="4"/>
									<ScoreDistribution value="2" recordCount="0"/>
									<ScoreDistribution value="3" recordCount="0"/>
									<ScoreDistribution value="4" recordCount="0"/>
									<ScoreDistribution value="5" recordCount="0"/>
								</Node>
							</Node>
							<Node>
								<SimplePredicate field="double(Object Shape)" operator="lessOrEqual" value="0.5"/>
								<Node score="3" recordCount="4">
									<SimplePredicate field="double(Aspect Ratio)" operator="lessOrEqual" value="7.0"/>
									<ScoreDistribution value="1" recordCount="0"/>
									<ScoreDistribution value="2" recordCount="0"/>
									<ScoreDistribution value="3" recordCount="4"/>
									<ScoreDistribution value="4" recordCount="0"/>
									<ScoreDistribution value="5" recordCount="0"/>
								</Node>
								<Node score="1" recordCount="2">
									<SimplePredicate field="double(Height)" operator="lessOrEqual" value="25.0"/>
									<ScoreDistribution value="1" recordCount="2"/>
									<ScoreDistribution value="2" recordCount="0"/>
									<ScoreDistribution value="3" recordCount="0"/>
									<ScoreDistribution value="4" recordCount="0"/>
									<ScoreDistribution value="5" recordCount="0"/>
								</Node>
								<Node score="5" recordCount="1">
									<SimplePredicate field="double(Height)" operator="lessOrEqual" value="35.0"/>
									<ScoreDistribution value="1" recordCount="0"/>
									<ScoreDistribution value="2" recordCount="0"/>
									<ScoreDistribution value="3" recordCount="0"/>
									<ScoreDistribution value="4" recordCount="0"/>
									<ScoreDistribution value="5" recordCount="1"/>
								</Node>
								<Node score="3" recordCount="2">
									<True/>
									<ScoreDistribution value="1" recordCount="0"/>
									<ScoreDistribution value="2" recordCount="0"/>
									<ScoreDistribution value="3" recordCount="2"/>
									<ScoreDistribution value="4" recordCount="0"/>
									<ScoreDistribution value="5" recordCount="0"/>
								</Node>
							</Node>
							<Node>
								<SimplePredicate field="double(Height)" operator="lessOrEqual" value="45.0"/>
								<Node score="1" recordCount="3">
									<SimplePredicate field="double(Aspect Ratio)" operator="lessOrEqual" value="7.0"/>
									<ScoreDistribution value="1" recordCount="3"/>
									<ScoreDistribution value="2" recordCount="0"/>
									<ScoreDistribution value="3" recordCount="0"/>
									<ScoreDistribution value="4" recordCount="0"/>
									<ScoreDistribution value="5" recordCount="0"/>
								</Node>
								<Node score="3" recordCount="1">
									<True/>
									<ScoreDistribution value="1" recordCount="0"/>
									<ScoreDistribution value="2" recordCount="0"/>
									<ScoreDistribution value="3" recordCount="1"/>
									<ScoreDistribution value="4" recordCount="0"/>
									<ScoreDistribution value="5" recordCount="0"/>
								</Node>
							</Node>
							<Node>
								<SimplePredicate field="double(Aspect Ratio)" operator="lessOrEqual" value="5.0"/>
								<Node score="4" recordCount="3">
									<SimplePredicate field="double(Height)" operator="lessOrEqual" value="55.0"/>
									<ScoreDistribution value="1" recordCount="0"/>
									<ScoreDistribution value="2" recordCount="0"/>
									<ScoreDistribution value="3" recordCount="0"/>
									<ScoreDistribution value="4" recordCount="3"/>
									<ScoreDistribution value="5" recordCount="0"/>
								</Node>
								<Node score="3" recordCount="2">
									<True/>
									<ScoreDistribution value="1" recordCount="0"/>
									<ScoreDistribution value="2" recordCount="0"/>
									<ScoreDistribution value="3" recordCount="2"/>
									<ScoreDistribution value="4" recordCount="0"/>
									<ScoreDistribution value="5" recordCount="0"/>
								</Node>
							</Node>
							<Node score="4" recordCount="2">
								<True/>
								<ScoreDistribution value="1" recordCount="0"/>
								<ScoreDistribution value="2" recordCount="0"/>
								<ScoreDistribution value="3" recordCount="0"/>
								<ScoreDistribution value="4" recordCount="2"/>
								<ScoreDistribution value="5" recordCount="0"/>
							</Node>
						</Node>
						<Node>
							<SimplePredicate field="double(Aspect Ratio)" operator="lessOrEqual" value="1.5"/>
							<Node>
								<SimplePredicate field="double(Object Shape)" operator="lessOrEqual" value="0.5"/>
								<Node>
									<SimplePredicate field="double(Height)" operator="lessOrEqual" value="75.0"/>
									<Node score="2" recordCount="2">
										<SimplePredicate field="double(Aspect Ratio)" operator="lessOrEqual" value="0.375"/>
										<ScoreDistribution value="1" recordCount="0"/>
										<ScoreDistribution value="2" recordCount="2"/>
										<ScoreDistribution value="3" recordCount="0"/>
										<ScoreDistribution value="4" recordCount="0"/>
										<ScoreDistribution value="5" recordCount="0"/>
									</Node>
									<Node score="1" recordCount="1">
										<True/>
										<ScoreDistribution value="1" recordCount="1"/>
										<ScoreDistribution value="2" recordCount="0"/>
										<ScoreDistribution value="3" recordCount="0"/>
										<ScoreDistribution value="4" recordCount="0"/>
										<ScoreDistribution value="5" recordCount="0"/>
									</Node>
								</Node>
								<Node>
									<SimplePredicate field="double(Height)" operator="lessOrEqual" value="85.0"/>
									<Node score="2" recordCount="1">
										<SimplePredicate field="double(Aspect Ratio)" operator="lessOrEqual" value="0.375"/>
										<ScoreDistribution value="1" recordCount="0"/>
										<ScoreDistribution value="2" recordCount="1"/>
										<ScoreDistribution value="3" recordCount="0"/>
										<ScoreDistribution value="4" recordCount="0"/>
										<ScoreDistribution value="5" recordCount="0"/>
									</Node>
									<Node score="1" recordCount="3">
										<True/>
										<ScoreDistribution value="1" recordCount="3"/>
										<ScoreDistribution value="2" recordCount="0"/>
										<ScoreDistribution value="3" recordCount="0"/>
										<ScoreDistribution value="4" recordCount="0"/>
										<ScoreDistribution value="5" recordCount="0"/>
									</Node>
								</Node>
								<Node score="1" recordCount="5">
									<True/>
									<ScoreDistribution value="1" recordCount="5"/>
									<ScoreDistribution value="2" recordCount="0"/>
									<ScoreDistribution value="3" recordCount="0"/>
									<ScoreDistribution value="4" recordCount="0"/>
									<ScoreDistribution value="5" recordCount="0"/>
								</Node>
							</Node>
							<Node>
								<SimplePredicate field="double(Height)" operator="lessOrEqual" value="95.0"/>
								<Node>
									<SimplePredicate field="double(Height)" operator="lessOrEqual" value="75.0"/>
									<Node score="2" recordCount="1">
										<SimplePredicate field="double(Aspect Ratio)" operator="lessOrEqual" value="0.375"/>
										<ScoreDistribution value="1" recordCount="0"/>
										<ScoreDistribution value="2" recordCount="1"/>
										<ScoreDistribution value="3" recordCount="0"/>
										<ScoreDistribution value="4" recordCount="0"/>
										<ScoreDistribution value="5" recordCount="0"/>
									</Node>
									<Node score="3" recordCount="1">
										<SimplePredicate field="double(Aspect Ratio)" operator="lessOrEqual" value="0.75"/>
										<ScoreDistribution value="1" recordCount="0"/>
										<ScoreDistribution value="2" recordCount="0"/>
										<ScoreDistribution value="3" recordCount="1"/>
										<ScoreDistribution value="4" recordCount="0"/>
										<ScoreDistribution value="5" recordCount="0"/>
									</Node>
									<Node score="1" recordCount="1">
										<True/>
										<ScoreDistribution value="1" recordCount="1"/>
										<ScoreDistribution value="2" recordCount="0"/>
										<ScoreDistribution value="3" recordCount="0"/>
										<ScoreDistribution value="4" recordCount="0"/>
										<ScoreDistribution value="5" recordCount="0"/>
									</Node>
								</Node>
								<Node score="3" recordCount="2">
									<SimplePredicate field="double(Aspect Ratio)" operator="lessOrEqual" value="0.375"/>
									<ScoreDistribution value="1" recordCount="0"/>
									<ScoreDistribution value="2" recordCount="0"/>
									<ScoreDistribution value="3" recordCount="2"/>
									<ScoreDistribution value="4" recordCount="0"/>
									<ScoreDistribution value="5" recordCount="0"/>
								</Node>
								<Node score="1" recordCount="4">
									<True/>
									<ScoreDistribution value="1" recordCount="4"/>
									<ScoreDistribution value="2" recordCount="0"/>
									<ScoreDistribution value="3" recordCount="0"/>
									<ScoreDistribution value="4" recordCount="0"/>
									<ScoreDistribution value="5" recordCount="0"/>
								</Node>
							</Node>
							<Node score="1" recordCount="2">
								<SimplePredicate field="double(Aspect Ratio)" operator="lessOrEqual" value="0.75"/>
								<ScoreDistribution value="1" recordCount="2"/>
								<ScoreDistribution value="2" recordCount="0"/>
								<ScoreDistribution value="3" recordCount="0"/>
								<ScoreDistribution value="4" recordCount="0"/>
								<ScoreDistribution value="5" recordCount="0"/>
							</Node>
							<Node score="4" recordCount="2">
								<True/>
								<ScoreDistribution value="1" recordCount="0"/>
								<ScoreDistribution value="2" recordCount="0"/>
								<ScoreDistribution value="3" recordCount="0"/>
								<ScoreDistribution value="4" recordCount="2"/>
								<ScoreDistribution value="5" recordCount="0"/>
							</Node>
						</Node>
						<Node>
							<SimplePredicate field="double(Height)" operator="lessOrEqual" value="85.0"/>
							<Node>
								<SimplePredicate field="double(Height)" operator="lessOrEqual" value="75.0"/>
								<Node>
									<SimplePredicate field="double(Aspect Ratio)" operator="lessOrEqual" value="3.5"/>
									<Node>
										<SimplePredicate field="double(Object Shape)" operator="lessOrEqual" value="0.5"/>
										<Node score="3" recordCount="2">
											<SimplePredicate field="double(Aspect Ratio)" operator="lessOrEqual" value="2.5"/>
											<ScoreDistribution value="1" recordCount="0"/>
											<ScoreDistribution value="2" recordCount="0"/>
											<ScoreDistribution value="3" recordCount="2"/>
											<ScoreDistribution value="4" recordCount="0"/>
											<ScoreDistribution value="5" recordCount="0"/>
										</Node>
										<Node score="1" recordCount="1">
											<True/>
											<ScoreDistribution value="1" recordCount="1"/>
											<ScoreDistribution value="2" recordCount="0"/>
											<ScoreDistribution value="3" recordCount="0"/>
											<ScoreDistribution value="4" recordCount="0"/>
											<ScoreDistribution value="5" recordCount="0"/>
										</Node>
									</Node>
									<Node score="2" recordCount="1">
										<True/>
										<ScoreDistribution value="1" recordCount="0"/>
										<ScoreDistribution value="2" recordCount="1"/>
										<ScoreDistribution value="3" recordCount="0"/>
										<ScoreDistribution value="4" recordCount="0"/>
										<ScoreDistribution value="5" recordCount="0"/>
									</Node>
								</Node>
								<Node score="4" recordCount="3">
									<SimplePredicate field="double(Object Shape)" operator="lessOrEqual" value="0.5"/>
									<ScoreDistribution value="1" recordCount="0"/>
									<ScoreDistribution value="2" recordCount="0"/>
									<ScoreDistribution value="3" recordCount="0"/>
									<ScoreDistribution value="4" recordCount="3"/>
									<ScoreDistribution value="5" recordCount="0"/>
								</Node>
								<Node score="4" recordCount="1">
									<SimplePredicate field="double(Aspect Ratio)" operator="lessOrEqual" value="5.0"/>
									<ScoreDistribution value="1" recordCount="0"/>
									<ScoreDistribution value="2" recordCount="0"/>
									<ScoreDistribution value="3" recordCount="0"/>
									<ScoreDistribution value="4" recordCount="1"/>
									<ScoreDistribution value="5" recordCount="0"/>
								</Node>
								<Node score="3" recordCount="1">
									<True/>
									<ScoreDistribution value="1" recordCount="0"/>
									<ScoreDistribution value="2" recordCount="0"/>
									<ScoreDistribution value="3" recordCount="1"/>
									<ScoreDistribution value="4" recordCount="0"/>
									<ScoreDistribution value="5" recordCount="0"/>
								</Node>
							</Node>
							<Node score="4" recordCount="13">
								<True/>
								<ScoreDistribution value="1" recordCount="0"/>
								<ScoreDistribution value="2" recordCount="0"/>
								<ScoreDistribution value="3" recordCount="0"/>
								<ScoreDistribution value="4" recordCount="13"/>
								<ScoreDistribution value="5" recordCount="0"/>
							</Node>
						</Node>
						<Node>
							<SimplePredicate field="double(Height)" operator="lessOrEqual" value="95.0"/>
							<Node score="5" recordCount="8">
								<SimplePredicate field="double(Object Shape)" operator="lessOrEqual" value="0.5"/>
								<ScoreDistribution value="1" recordCount="0"/>
								<ScoreDistribution value="2" recordCount="0"/>
								<ScoreDistribution value="3" recordCount="0"/>
								<ScoreDistribution value="4" recordCount="0"/>
								<ScoreDistribution value="5" recordCount="8"/>
							</Node>
							<Node score="4" recordCount="5">
								<True/>
								<ScoreDistribution value="1" recordCount="0"/>
								<ScoreDistribution value="2" recordCount="0"/>
								<ScoreDistribution value="3" recordCount="0"/>
								<ScoreDistribution value="4" recordCount="5"/>
								<ScoreDistribution value="5" recordCount="0"/>
							</Node>
						</Node>
						<Node score="5" recordCount="3">
							<True/>
							<ScoreDistribution value="1" recordCount="0"/>
							<ScoreDistribution value="2" recordCount="0"/>
							<ScoreDistribution value="3" recordCount="0"/>
							<ScoreDistribution value="4" recordCount="0"/>
							<ScoreDistribution value="5" recordCount="3"/>
						</Node>
					</Node>
				</TreeModel>
			</Segment>
			<Segment id="2">
				<True/>
				<TreeModel functionName="classification" missingValueStrategy="nullPrediction">
					<MiningSchema>
						<MiningField name="double(Height)"/>
						<MiningField name="double(Aspect Ratio)"/>
						<MiningField name="double(Object Shape)"/>
					</MiningSchema>
					<Node>
						<True/>
						<Node>
							<SimplePredicate field="double(Aspect Ratio)" operator="lessOrEqual" value="1.5"/>
							<Node>
								<SimplePredicate field="double(Aspect Ratio)" operator="lessOrEqual" value="0.375"/>
								<Node>
									<SimplePredicate field="double(Height)" operator="lessOrEqual" value="55.0"/>
									<Node score="1" recordCount="1">
										<SimplePredicate field="double(Height)" operator="lessOrEqual" value="30.0"/>
										<ScoreDistribution value="1" recordCount="1"/>
										<ScoreDistribution value="2" recordCount="0"/>
										<ScoreDistribution value="3" recordCount="0"/>
										<ScoreDistribution value="4" recordCount="0"/>
										<ScoreDistribution value="5" recordCount="0"/>
									</Node>
									<Node score="3" recordCount="2">
										<True/>
										<ScoreDistribution value="1" recordCount="0"/>
										<ScoreDistribution value="2" recordCount="0"/>
										<ScoreDistribution value="3" recordCount="2"/>
										<ScoreDistribution value="4" recordCount="0"/>
										<ScoreDistribution value="5" recordCount="0"/>
									</Node>
								</Node>
								<Node>
									<SimplePredicate field="double(Object Shape)" operator="lessOrEqual" value="0.5"/>
									<Node score="2" recordCount="1">
										<SimplePredicate field="double(Height)" operator="lessOrEqual" value="90.0"/>
										<ScoreDistribution value="1" recordCount="0"/>
										<ScoreDistribution value="2" recordCount="1"/>
										<ScoreDistribution value="3" recordCount="0"/>
										<ScoreDistribution value="4" recordCount="0"/>
										<ScoreDistribution value="5" recordCount="0"/>
									</Node>
									<Node score="1" recordCount="3">
										<True/>
										<ScoreDistribution value="1" recordCount="3"/>
										<ScoreDistribution value="2" recordCount="0"/>
										<ScoreDistribution value="3" recordCount="0"/>
										<ScoreDistribution value="4" recordCount="0"/>
										<ScoreDistribution value="5" recordCount="0"/>
									</Node>
								</Node>
								<Node score="1" recordCount="1">
									<True/>
									<ScoreDistribution value="1" recordCount="1"/>
									<ScoreDistribution value="2" recordCount="0"/>
									<ScoreDistribution value="3" recordCount="0"/>
									<ScoreDistribution value="4" recordCount="0"/>
									<ScoreDistribution value="5" recordCount="0"/>
								</Node>
							</Node>
							<Node>
								<SimplePredicate field="double(Aspect Ratio)" operator="lessOrEqual" value="0.75"/>
								<Node>
									<SimplePredicate field="double(Height)" operator="lessOrEqual" value="75.0"/>
									<Node score="1" recordCount="2">
										<SimplePredicate field="double(Object Shape)" operator="lessOrEqual" value="0.5"/>
										<ScoreDistribution value="1" recordCount="2"/>
										<ScoreDistribution value="2" recordCount="0"/>
										<ScoreDistribution value="3" recordCount="0"/>
										<ScoreDistribution value="4" recordCount="0"/>
										<ScoreDistribution value="5" recordCount="0"/>
									</Node>
									<Node score="3" recordCount="1">
										<SimplePredicate field="double(Height)" operator="lessOrEqual" value="45.0"/>
										<ScoreDistribution value="1" recordCount="0"/>
										<ScoreDistribution value="2" recordCount="0"/>
										<ScoreDistribution value="3" recordCount="1"/>
										<ScoreDistribution value="4" recordCount="0"/>
										<ScoreDistribution value="5" recordCount="0"/>
									</Node>
									<Node score="1" recordCount="4">
										<SimplePredicate field="double(Height)" operator="lessOrEqual" value="65.0"/>
										<ScoreDistribution value="1" recordCount="4"/>
										<ScoreDistribution value="2" recordCount="0"/>
										<ScoreDistribution value="3" recordCount="0"/>
										<ScoreDistribution value="4" recordCount="0"/>
										<ScoreDistribution value="5" recordCount="0"/>
									</Node>
									<Node score="3" recordCount="1">
										<True/>
										<ScoreDistribution value="1" recordCount="0"/>
										<ScoreDistribution value="2" recordCount="0"/>
										<ScoreDistribution value="3" recordCount="1"/>
										<ScoreDistribution value="4" recordCount="0"/>
										<ScoreDistribution value="5" recordCount="0"/>
									</Node>
								</Node>
								<Node score="1" recordCount="10">
									<True/>
									<ScoreDistribution value="1" recordCount="10"/>
									<ScoreDistribution value="2" recordCount="0"/>
									<ScoreDistribution value="3" recordCount="0"/>
									<ScoreDistribution value="4" recordCount="0"/>
									<ScoreDistribution value="5" recordCount="0"/>
								</Node>
							</Node>
							<Node score="1" recordCount="15">
								<SimplePredicate field="double(Height)" operator="lessOrEqual" value="90.0"/>
								<ScoreDistribution value="1" recordCount="15"/>
								<ScoreDistribution value="2" recordCount="0"/>
								<ScoreDistribution value="3" recordCount="0"/>
								<ScoreDistribution value="4" recordCount="0"/>
								<ScoreDistribution value="5" recordCount="0"/>
							</Node>
							<Node score="5" recordCount="1">
								<True/>
								<ScoreDistribution value="1" recordCount="0"/>
								<ScoreDistribution value="2" recordCount="0"/>
								<ScoreDistribution value="3" recordCount="0"/>
								<ScoreDistribution value="4" recordCount="0"/>
								<ScoreDistribution value="5" recordCount="1"/>
							</Node>
						</Node>
						<Node score="1" recordCount="14">
							<SimplePredicate field="double(Height)" operator="lessOrEqual" value="25.0"/>
							<ScoreDistribution value="1" recordCount="14"/>
							<ScoreDistribution value="2" recordCount="0"/>
							<ScoreDistribution value="3" recordCount="0"/>
							<ScoreDistribution value="4" recordCount="0"/>
							<ScoreDistribution value="5" recordCount="0"/>
						</Node>
						<Node>
							<SimplePredicate field="double(Aspect Ratio)" operator="lessOrEqual" value="3.5"/>
							<Node>
								<SimplePredicate field="double(Aspect Ratio)" operator="lessOrEqual" value="2.5"/>
								<Node>
									<SimplePredicate field="double(Height)" operator="lessOrEqual" value="85.0"/>
									<Node score="1" recordCount="2">
										<SimplePredicate field="double(Height)" operator="lessOrEqual" value="55.0"/>
										<ScoreDistribution value="1" recordCount="2"/>
										<ScoreDistribution value="2" recordCount="0"/>
										<ScoreDistribution value="3" recordCount="0"/>
										<ScoreDistribution value="4" recordCount="0"/>
										<ScoreDistribution value="5" recordCount="0"/>
									</Node>
									<Node score="2" recordCount="2">
										<SimplePredicate field="double(Height)" operator="lessOrEqual" value="65.0"/>
										<ScoreDistribution value="1" recordCount="0"/>
										<ScoreDistribution value="2" recordCount="2"/>
										<ScoreDistribution value="3" recordCount="0"/>
										<ScoreDistribution value="4" recordCount="0"/>
										<ScoreDistribution value="5" recordCount="0"/>
									</Node>
									<Node score="3" recordCount="2">
										<SimplePredicate field="double(Height)" operator="lessOrEqual" value="75.0"/>
										<ScoreDistribution value="1" recordCount="0"/>
										<ScoreDistribution value="2" recordCount="0"/>
										<ScoreDistribution value="3" recordCount="2"/>
										<ScoreDistribution value="4" recordCount="0"/>
										<ScoreDistribution value="5" recordCount="0"/>
									</Node>
									<Node score="4" recordCount="1">
										<True/>
										<ScoreDistribution value="1" recordCount="0"/>
										<ScoreDistribution value="2" recordCount="0"/>
										<ScoreDistribution value="3" recordCount="0"/>
										<ScoreDistribution value="4" recordCount="1"/>
										<ScoreDistribution value="5" recordCount="0"/>
									</Node>
								</Node>
								<Node>
									<SimplePredicate field="double(Height)" operator="lessOrEqual" value="95.0"/>
									<Node score="5" recordCount="3">
										<SimplePredicate field="double(Object Shape)" operator="lessOrEqual" value="0.5"/>
										<ScoreDistribution value="1" recordCount="0"/>
										<ScoreDistribution value="2" recordCount="0"/>
										<ScoreDistribution value="3" recordCount="0"/>
										<ScoreDistribution value="4" recordCount="0"/>
										<ScoreDistribution value="5" recordCount="3"/>
									</Node>
									<Node score="4" recordCount="1">
										<True/>
										<ScoreDistribution value="1" recordCount="0"/>
										<ScoreDistribution value="2" recordCount="0"/>
										<ScoreDistribution value="3" recordCount="0"/>
										<ScoreDistribution value="4" recordCount="1"/>
										<ScoreDistribution value="5" recordCount="0"/>
									</Node>
								</Node>
								<Node score="5" recordCount="2">
									<True/>
									<ScoreDistribution value="1" recordCount="0"/>
									<ScoreDistribution value="2" recordCount="0"/>
									<ScoreDistribution value="3" recordCount="0"/>
									<ScoreDistribution value="4" recordCount="0"/>
									<ScoreDistribution value="5" recordCount="2"/>
								</Node>
							</Node>
							<Node>
								<SimplePredicate field="double(Object Shape)" operator="lessOrEqual" value="0.5"/>
								<Node score="4" recordCount="2">
									<SimplePredicate field="double(Height)" operator="lessOrEqual" value="55.0"/>
									<ScoreDistribution value="1" recordCount="0"/>
									<ScoreDistribution value="2" recordCount="0"/>
									<ScoreDistribution value="3" recordCount="0"/>
									<ScoreDistribution value="4" recordCount="2"/>
									<ScoreDistribution value="5" recordCount="0"/>
								</Node>
								<Node score="1" recordCount="2">
									<SimplePredicate field="double(Height)" operator="lessOrEqual" value="70.0"/>
									<ScoreDistribution value="1" recordCount="2"/>
									<ScoreDistribution value="2" recordCount="0"/>
									<ScoreDistribution value="3" recordCount="0"/>
									<ScoreDistribution value="4" recordCount="0"/>
									<ScoreDistribution value="5" recordCount="0"/>
								</Node>
								<Node score="4" recordCount="1">
									<True/>
									<ScoreDistribution value="1" recordCount="0"/>
									<ScoreDistribution value="2" recordCount="0"/>
									<ScoreDistribution value="3" recordCount="0"/>
									<ScoreDistribution value="4" recordCount="1"/>
									<ScoreDistribution value="5" recordCount="0"/>
								</Node>
							</Node>
							<Node score="2" recordCount="5">
								<SimplePredicate field="double(Height)" operator="lessOrEqual" value="55.0"/>
								<ScoreDistribution value="1" recordCount="0"/>
								<ScoreDistribution value="2" recordCount="5"/>
								<ScoreDistribution value="3" recordCount="0"/>
								<ScoreDistribution value="4" recordCount="0"/>
								<ScoreDistribution value="5" recordCount="0"/>
							</Node>
							<Node score="1" recordCount="1">
								<SimplePredicate field="double(Height)" operator="lessOrEqual" value="65.0"/>
								<ScoreDistribution value="1" recordCount="1"/>
								<ScoreDistribution value="2" recordCount="0"/>
								<ScoreDistribution value="3" recordCount="0"/>
								<ScoreDistribution value="4" recordCount="0"/>
								<ScoreDistribution value="5" recordCount="0"/>
							</Node>
							<Node score="3" recordCount="1">
								<SimplePredicate field="double(Height)" operator="lessOrEqual" value="80.0"/>
								<ScoreDistribution value="1" recordCount="0"/>
								<ScoreDistribution value="2" recordCount="0"/>
								<ScoreDistribution value="3" recordCount="1"/>
								<ScoreDistribution value="4" recordCount="0"/>
								<ScoreDistribution value="5" recordCount="0"/>
							</Node>
							<Node score="4" recordCount="1">
								<True/>
								<ScoreDistribution value="1" recordCount="0"/>
								<ScoreDistribution value="2" recordCount="0"/>
								<ScoreDistribution value="3" recordCount="0"/>
								<ScoreDistribution value="4" recordCount="1"/>
								<ScoreDistribution value="5" recordCount="0"/>
							</Node>
						</Node>
						<Node>
							<SimplePredicate field="double(Aspect Ratio)" operator="lessOrEqual" value="5.0"/>
							<Node score="2" recordCount="4">
								<SimplePredicate field="double(Height)" operator="lessOrEqual" value="35.0"/>
								<ScoreDistribution value="1" recordCount="0"/>
								<ScoreDistribution value="2" recordCount="4"/>
								<ScoreDistribution value="3" recordCount="0"/>
								<ScoreDistribution value="4" recordCount="0"/>
								<ScoreDistribution value="5" recordCount="0"/>
							</Node>
							<Node>
								<SimplePredicate field="double(Object Shape)" operator="lessOrEqual" value="0.5"/>
								<Node score="3" recordCount="3">
									<SimplePredicate field="double(Height)" operator="lessOrEqual" value="65.0"/>
									<ScoreDistribution value="1" recordCount="0"/>
									<ScoreDistribution value="2" recordCount="0"/>
									<ScoreDistribution value="3" recordCount="3"/>
									<ScoreDistribution value="4" recordCount="0"/>
									<ScoreDistribution value="5" recordCount="0"/>
								</Node>
								<Node score="4" recordCount="4">
									<SimplePredicate field="double(Height)" operator="lessOrEqual" value="90.0"/>
									<ScoreDistribution value="1" recordCount="0"/>
									<ScoreDistribution value="2" recordCount="0"/>
									<ScoreDistribution value="3" recordCount="0"/>
									<ScoreDistribution value="4" recordCount="4"/>
									<ScoreDistribution value="5" recordCount="0"/>
								</Node>
								<Node score="5" recordCount="1">
									<True/>
									<ScoreDistribution value="1" recordCount="0"/>
									<ScoreDistribution value="2" recordCount="0"/>
									<ScoreDistribution value="3" recordCount="0"/>
									<ScoreDistribution value="4" recordCount="0"/>
									<ScoreDistribution value="5" recordCount="1"/>
								</Node>
							</Node>
							<Node score="1" recordCount="1">
								<SimplePredicate field="double(Height)" operator="lessOrEqual" value="45.0"/>
								<ScoreDistribution value="1" recordCount="1"/>
								<ScoreDistribution value="2" recordCount="0"/>
								<ScoreDistribution value="3" recordCount="0"/>
								<ScoreDistribution value="4" recordCount="0"/>
								<ScoreDistribution value="5" recordCount="0"/>
							</Node>
							<Node>
								<SimplePredicate field="double(Height)" operator="lessOrEqual" value="70.0"/>
								<Node score="4" recordCount="2">
									<SimplePredicate field="double(Height)" operator="lessOrEqual" value="55.0"/>
									<ScoreDistribution value="1" recordCount="0"/>
									<ScoreDistribution value="2" recordCount="0"/>
									<ScoreDistribution value="3" recordCount="0"/>
									<ScoreDistribution value="4" recordCount="2"/>
									<ScoreDistribution value="5" recordCount="0"/>
								</Node>
								<Node score="3" recordCount="2">
									<True/>
									<ScoreDistribution value="1" recordCount="0"/>
									<ScoreDistribution value="2" recordCount="0"/>
									<ScoreDistribution value="3" recordCount="2"/>
									<ScoreDistribution value="4" recordCount="0"/>
									<ScoreDistribution value="5" recordCount="0"/>
								</Node>
							</Node>
							<Node score="4" recordCount="3">
								<True/>
								<ScoreDistribution value="1" recordCount="0"/>
								<ScoreDistribution value="2" recordCount="0"/>
								<ScoreDistribution value="3" recordCount="0"/>
								<ScoreDistribution value="4" recordCount="3"/>
								<ScoreDistribution value="5" recordCount="0"/>
							</Node>
						</Node>
						<Node>
							<SimplePredicate field="double(Object Shape)" operator="lessOrEqual" value="0.5"/>
							<Node>
								<SimplePredicate field="double(Height)" operator="lessOrEqual" value="85.0"/>
								<Node>
									<SimplePredicate field="double(Aspect Ratio)" operator="lessOrEqual" value="7.0"/>
									<Node score="4" recordCount="1">
										<SimplePredicate field="double(Height)" operator="lessOrEqual" value="45.0"/>
										<ScoreDistribution value="1" recordCount="0"/>
										<ScoreDistribution value="2" recordCount="0"/>
										<ScoreDistribution value="3" recordCount="0"/>
										<ScoreDistribution value="4" recordCount="1"/>
										<ScoreDistribution value="5" recordCount="0"/>
									</Node>
									<Node score="3" recordCount="4">
										<True/>
										<ScoreDistribution value="1" recordCount="0"/>
										<ScoreDistribution value="2" recordCount="0"/>
										<ScoreDistribution value="3" recordCount="4"/>
										<ScoreDistribution value="4" recordCount="0"/>
										<ScoreDistribution value="5" recordCount="0"/>
									</Node>
								</Node>
								<Node score="5" recordCount="1">
									<SimplePredicate field="double(Height)" operator="lessOrEqual" value="35.0"/>
									<ScoreDistribution value="1" recordCount="0"/>
									<ScoreDistribution value="2" recordCount="0"/>
									<ScoreDistribution value="3" recordCount="0"/>
									<ScoreDistribution value="4" recordCount="0"/>
									<ScoreDistribution value="5" recordCount="1"/>
								</Node>
								<Node score="3" recordCount="4">
									<SimplePredicate field="double(Height)" operator="lessOrEqual" value="70.0"/>
									<ScoreDistribution value="1" recordCount="0"/>
									<ScoreDistribution value="2" recordCount="0"/>
									<ScoreDistribution value="3" recordCount="4"/>
									<ScoreDistribution value="4" recordCount="0"/>
									<ScoreDistribution value="5" recordCount="0"/>
								</Node>
								<Node score="4" recordCount="1">
									<True/>
									<ScoreDistribution value="1" recordCount="0"/>
									<ScoreDistribution value="2" recordCount="0"/>
									<ScoreDistribution value="3" recordCount="0"/>
									<ScoreDistribution value="4" recordCount="1"/>
									<ScoreDistribution value="5" recordCount="0"/>
								</Node>
							</Node>
							<Node score="5" recordCount="4">
								<True/>
								<ScoreDistribution value="1" recordCount="0"/>
								<ScoreDistribution value="2" recordCount="0"/>
								<ScoreDistribution value="3" recordCount="0"/>
								<ScoreDistribution value="4" recordCount="0"/>
								<ScoreDistribution value="5" recordCount="4"/>
							</Node>
						</Node>
						<Node>
							<SimplePredicate field="double(Height)" operator="lessOrEqual" value="45.0"/>
							<Node score="3" recordCount="1">
								<SimplePredicate field="double(Height)" operator="lessOrEqual" value="35.0"/>
								<ScoreDistribution value="1" recordCount="0"/>
								<ScoreDistribution value="2" recordCount="0"/>
								<ScoreDistribution value="3" recordCount="1"/>
								<ScoreDistribution value="4" recordCount="0"/>
								<ScoreDistribution value="5" recordCount="0"/>
							</Node>
							<Node score="5" recordCount="1">
								<True/>
								<ScoreDistribution value="1" recordCount="0"/>
								<ScoreDistribution value="2" recordCount="0"/>
								<ScoreDistribution value="3" recordCount="0"/>
								<ScoreDistribution value="4" recordCount="0"/>
								<ScoreDistribution value="5" recordCount="1"/>
							</Node>
						</Node>
						<Node>
							<SimplePredicate field="double(Aspect Ratio)" operator="lessOrEqual" value="7.0"/>
							<Node score="4" recordCount="3">
								<SimplePredicate field="double(Height)" operator="lessOrEqual" value="95.0"/>
								<ScoreDistribution value="1" recordCount="0"/>
								<ScoreDistribution value="2" recordCount="0"/>
								<ScoreDistribution value="3" recordCount="0"/>
								<ScoreDistribution value="4" recordCount="3"/>
								<ScoreDistribution value="5" recordCount="0"/>
							</Node>
							<Node score="5" recordCount="1">
								<True/>
								<ScoreDistribution value="1" recordCount="0"/>
								<ScoreDistribution value="2" recordCount="0"/>
								<ScoreDistribution value="3" recordCount="0"/>
								<ScoreDistribution value="4" recordCount="0"/>
								<ScoreDistribution value="5" recordCount="1"/>
							</Node>
						</Node>
						<Node score="4" recordCount="6">
							<True/>
							<ScoreDistribution value="1" recordCount="0"/>
							<ScoreDistribution value="2" recordCount="0"/>
							<ScoreDistribution value="3" recordCount="0"/>
							<ScoreDistribution value="4" recordCount="6"/>
							<ScoreDistribution value="5" recordCount="0"/>
						</Node>
					</Node>
				</TreeModel>
			</Segment>
			<Segment id="3">
				<True/>
				<TreeModel functionName="classification" missingValueStrategy="nullPrediction">
					<MiningSchema>
						<MiningField name="double(Height)"/>
						<MiningField name="double(Aspect Ratio)"/>
						<MiningField name="double(Object Shape)"/>
					</MiningSchema>
					<Node>
						<True/>
						<Node>
							<SimplePredicate field="double(Aspect Ratio)" operator="lessOrEqual" value="1.5"/>
							<Node>
								<SimplePredicate field="double(Aspect Ratio)" operator="lessOrEqual" value="0.75"/>
								<Node>
									<SimplePredicate field="double(Aspect Ratio)" operator="lessOrEqual" value="0.375"/>
									<Node>
										<SimplePredicate field="double(Height)" operator="lessOrEqual" value="80.0"/>
										<Node score="1" recordCount="3">
											<SimplePredicate field="double(Height)" operator="lessOrEqual" value="35.0"/>
											<ScoreDistribution value="1" recordCount="3"/>
											<ScoreDistribution value="2" recordCount="0"/>
											<ScoreDistribution value="3" recordCount="0"/>
											<ScoreDistribution value="4" recordCount="0"/>
											<ScoreDistribution value="5" recordCount="0"/>
										</Node>
										<Node score="3" recordCount="2">
											<SimplePredicate field="double(Height)" operator="lessOrEqual" value="55.0"/>
											<ScoreDistribution value="1" recordCount="0"/>
											<ScoreDistribution value="2" recordCount="0"/>
											<ScoreDistribution value="3" recordCount="2"/>
											<ScoreDistribution value="4" recordCount="0"/>
											<ScoreDistribution value="5" recordCount="0"/>
										</Node>
										<Node score="2" recordCount="1">
											<True/>
											<ScoreDistribution value="1" recordCount="0"/>
											<ScoreDistribution value="2" recordCount="1"/>
											<ScoreDistribution value="3" recordCount="0"/>
											<ScoreDistribution value="4" recordCount="0"/>
											<ScoreDistribution value="5" recordCount="0"/>
										</Node>
									</Node>
									<Node score="1" recordCount="4">
										<True/>
										<ScoreDistribution value="1" recordCount="4"/>
										<ScoreDistribution value="2" recordCount="0"/>
										<ScoreDistribution value="3" recordCount="0"/>
										<ScoreDistribution value="4" recordCount="0"/>
										<ScoreDistribution value="5" recordCount="0"/>
									</Node>
								</Node>
								<Node>
									<SimplePredicate field="double(Object Shape)" operator="lessOrEqual" value="0.5"/>
									<Node score="1" recordCount="5">
										<SimplePredicate field="double(Height)" operator="lessOrEqual" value="55.0"/>
										<ScoreDistribution value="1" recordCount="5"/>
										<ScoreDistribution value="2" recordCount="0"/>
										<ScoreDistribution value="3" recordCount="0"/>
										<ScoreDistribution value="4" recordCount="0"/>
										<ScoreDistribution value="5" recordCount="0"/>
									</Node>
									<Node score="2" recordCount="1">
										<SimplePredicate field="double(Height)" operator="lessOrEqual" value="65.0"/>
										<ScoreDistribution value="1" recordCount="0"/>
										<ScoreDistribution value="2" recordCount="1"/>
										<ScoreDistribution value="3" recordCount="0"/>
										<ScoreDistribution value="4" recordCount="0"/>
										<ScoreDistribution value="5" recordCount="0"/>
									</Node>
									<Node score="1" recordCount="4">
										<True/>
										<ScoreDistribution value="1" recordCount="4"/>
										<ScoreDistribution value="2" recordCount="0"/>
										<ScoreDistribution value="3" recordCount="0"/>
										<ScoreDistribution value="4" recordCount="0"/>
										<ScoreDistribution value="5" recordCount="0"/>
									</Node>
								</Node>
								<Node score="3" recordCount="3">
									<SimplePredicate field="double(Height)" operator="lessOrEqual" value="45.0"/>
									<ScoreDistribution value="1" recordCount="0"/>
									<ScoreDistribution value="2" recordCount="0"/>
									<ScoreDistribution value="3" recordCount="3"/>
									<ScoreDistribution value="4" recordCount="0"/>
									<ScoreDistribution value="5" recordCount="0"/>
								</Node>
								<Node score="1" recordCount="3">
									<SimplePredicate field="double(Height)" operator="lessOrEqual" value="65.0"/>
									<ScoreDistribution value="1" recordCount="3"/>
									<ScoreDistribution value="2" recordCount="0"/>
									<ScoreDistribution value="3" recordCount="0"/>
									<ScoreDistribution value="4" recordCount="0"/>
									<ScoreDistribution value="5" recordCount="0"/>
								</Node>
								<Node score="3" recordCount="2">
									<SimplePredicate field="double(Height)" operator="lessOrEqual" value="80.0"/>
									<ScoreDistribution value="1" recordCount="0"/>
									<ScoreDistribution value="2" recordCount="0"/>
									<ScoreDistribution value="3" recordCount="2"/>
									<ScoreDistribution value="4" recordCount="0"/>
									<ScoreDistribution value="5" recordCount="0"/>
								</Node>
								<Node score="1" recordCount="2">
									<True/>
									<ScoreDistribution value="1" recordCount="2"/>
									<ScoreDistribution value="2" recordCount="0"/>
									<ScoreDistribution value="3" recordCount="0"/>
									<ScoreDistribution value="4" recordCount="0"/>
									<ScoreDistribution value="5" recordCount="0"/>
								</Node>
							</Node>
							<Node score="1" recordCount="19">
								<SimplePredicate field="double(Height)" operator="lessOrEqual" value="90.0"/>
								<ScoreDistribution value="1" recordCount="19"/>
								<ScoreDistribution value="2" recordCount="0"/>
								<ScoreDistribution value="3" recordCount="0"/>
								<ScoreDistribution value="4" recordCount="0"/>
								<ScoreDistribution value="5" recordCount="0"/>
							</Node>
							<Node score="5" recordCount="1">
								<SimplePredicate field="double(Object Shape)" operator="lessOrEqual" value="0.5"/>
								<ScoreDistribution value="1" recordCount="0"/>
								<ScoreDistribution value="2" recordCount="0"/>
								<ScoreDistribution value="3" recordCount="0"/>
								<ScoreDistribution value="4" recordCount="0"/>
								<ScoreDistribution value="5" recordCount="1"/>
							</Node>
							<Node score="4" recordCount="2">
								<True/>
								<ScoreDistribution value="1" recordCount="0"/>
								<ScoreDistribution value="2" recordCount="0"/>
								<ScoreDistribution value="3" recordCount="0"/>
								<ScoreDistribution value="4" recordCount="2"/>
								<ScoreDistribution value="5" recordCount="0"/>
							</Node>
						</Node>
						<Node>
							<SimplePredicate field="double(Height)" operator="lessOrEqual" value="75.0"/>
							<Node>
								<SimplePredicate field="double(Aspect Ratio)" operator="lessOrEqual" value="5.0"/>
								<Node>
									<SimplePredicate field="double(Aspect Ratio)" operator="lessOrEqual" value="3.5"/>
									<Node>
										<SimplePredicate field="double(Aspect Ratio)" operator="lessOrEqual" value="2.5"/>
										<Node score="1" recordCount="3">
											<SimplePredicate field="double(Height)" operator="lessOrEqual" value="55.0"/>
											<ScoreDistribution value="1" recordCount="3"/>
											<ScoreDistribution value="2" recordCount="0"/>
											<ScoreDistribution value="3" recordCount="0"/>
											<ScoreDistribution value="4" recordCount="0"/>
											<ScoreDistribution value="5" recordCount="0"/>
										</Node>
										<Node score="2" recordCount="3">
											<True/>
											<ScoreDistribution value="1" recordCount="0"/>
											<ScoreDistribution value="2" recordCount="3"/>
											<ScoreDistribution value="3" recordCount="0"/>
											<ScoreDistribution value="4" recordCount="0"/>
											<ScoreDistribution value="5" recordCount="0"/>
										</Node>
									</Node>
									<Node>
										<SimplePredicate field="double(Object Shape)" operator="lessOrEqual" value="0.5"/>
										<Node score="1" recordCount="2">
											<SimplePredicate field="double(Height)" operator="lessOrEqual" value="35.0"/>
											<ScoreDistribution value="1" recordCount="2"/>
											<ScoreDistribution value="2" recordCount="0"/>
											<ScoreDistribution value="3" recordCount="0"/>
											<ScoreDistribution value="4" recordCount="0"/>
											<ScoreDistribution value="5" recordCount="0"/>
										</Node>
										<Node score="2" recordCount="1">
											<SimplePredicate field="double(Height)" operator="lessOrEqual" value="45.0"/>
											<ScoreDistribution value="1" recordCount="0"/>
											<ScoreDistribution value="2" recordCount="1"/>
											<ScoreDistribution value="3" recordCount="0"/>
											<ScoreDistribution value="4" recordCount="0"/>
											<ScoreDistribution value="5" recordCount="0"/>
										</Node>
										<Node score="4" recordCount="2">
											<SimplePredicate field="double(Height)" operator="lessOrEqual" value="55.0"/>
											<ScoreDistribution value="1" recordCount="0"/>
											<ScoreDistribution value="2" recordCount="0"/>
											<ScoreDistribution value="3" recordCount="0"/>
											<ScoreDistribution value="4" recordCount="2"/>
											<ScoreDistribution value="5" recordCount="0"/>
										</Node>
										<Node score="1" recordCount="1">
											<True/>
											<ScoreDistribution value="1" recordCount="1"/>
											<ScoreDistribution value="2" recordCount="0"/>
											<ScoreDistribution value="3" recordCount="0"/>
											<ScoreDistribution value="4" recordCount="0"/>
											<ScoreDistribution value="5" recordCount="0"/>
										</Node>
									</Node>
									<Node score="1" recordCount="3">
										<True/>
										<ScoreDistribution value="1" recordCount="3"/>
										<ScoreDistribution value="2" recordCount="0"/>
										<ScoreDistribution value="3" recordCount="0"/>
										<ScoreDistribution value="4" recordCount="0"/>
										<ScoreDistribution value="5" recordCount="0"/>
									</Node>
								</Node>
								<Node>
									<SimplePredicate field="double(Object Shape)" operator="lessOrEqual" value="0.5"/>
									<Node>
										<SimplePredicate field="double(Height)" operator="lessOrEqual" value="40.0"/>
										<Node score="1" recordCount="1">
											<SimplePredicate field="double(Height)" operator="lessOrEqual" value="25.0"/>
											<ScoreDistribution value="1" recordCount="1"/>
											<ScoreDistribution value="2" recordCount="0"/>
											<ScoreDistribution value="3" recordCount="0"/>
											<ScoreDistribution value="4" recordCount="0"/>
											<ScoreDistribution value="5" recordCount="0"/>
										</Node>
										<Node score="2" recordCount="1">
											<True/>
											<ScoreDistribution value="1" recordCount="0"/>
											<ScoreDistribution value="2" recordCount="1"/>
											<ScoreDistribution value="3" recordCount="0"/>
											<ScoreDistribution value="4" recordCount="0"/>
											<ScoreDistribution value="5" recordCount="0"/>
										</Node>
									</Node>
									<Node score="3" recordCount="3">
										<SimplePredicate field="double(Height)" operator="lessOrEqual" value="65.0"/>
										<ScoreDistribution value="1" recordCount="0"/>
										<ScoreDistribution value="2" recordCount="0"/>
										<ScoreDistribution value="3" recordCount="3"/>
										<ScoreDistribution value="4" recordCount="0"/>
										<ScoreDistribution value="5" recordCount="0"/>
									</Node>
									<Node score="4" recordCount="1">
										<True/>
										<ScoreDistribution value="1" recordCount="0"/>
										<ScoreDistribution value="2" recordCount="0"/>
										<ScoreDistribution value="3" recordCount="0"/>
										<ScoreDistribution value="4" recordCount="1"/>
										<ScoreDistribution value="5" recordCount="0"/>
									</Node>
								</Node>
								<Node>
									<SimplePredicate field="double(Height)" operator="lessOrEqual" value="50.0"/>
									<Node>
										<SimplePredicate field="double(Height)" operator="lessOrEqual" value="35.0"/>
										<Node score="1" recordCount="1">
											<SimplePredicate field="double(Height)" operator="lessOrEqual" value="25.0"/>
											<ScoreDistribution value="1" recordCount="1"/>
											<ScoreDistribution value="2" recordCount="0"/>
											<ScoreDistribution value="3" recordCount="0"/>
											<ScoreDistribution value="4" recordCount="0"/>
											<ScoreDistribution value="5" recordCount="0"/>
										</Node>
										<Node score="2" recordCount="1">
											<True/>
											<ScoreDistribution value="1" recordCount="0"/>
											<ScoreDistribution value="2" recordCount="1"/>
											<ScoreDistribution value="3" recordCount="0"/>
											<ScoreDistribution value="4" recordCount="0"/>
											<ScoreDistribution value="5" recordCount="0"/>
										</Node>
									</Node>
									<Node score="1" recordCount="3">
										<True/>
										<ScoreDistribution value="1" recordCount="3"/>
										<ScoreDistribution value="2" recordCount="0"/>
										<ScoreDistribution value="3" recordCount="0"/>
										<ScoreDistribution value="4" recordCount="0"/>
										<ScoreDistribution value="5" recordCount="0"/>
									</Node>
								</Node>
								<Node score="3" recordCount="1">
									<True/>
									<ScoreDistribution value="1" recordCount="0"/>
									<ScoreDistribution value="2" recordCount="0"/>
									<ScoreDistribution value="3" recordCount="1"/>
									<ScoreDistribution value="4" recordCount="0"/>
									<ScoreDistribution value="5" recordCount="0"/>
								</Node>
							</Node>
							<Node score="1" recordCount="4">
								<SimplePredicate field="double(Height)" operator="lessOrEqual" value="25.0"/>
								<ScoreDistribution value="1" recordCount="4"/>
								<ScoreDistribution value="2" recordCount="0"/>
								<ScoreDistribution value="3" recordCount="0"/>
								<ScoreDistribution value="4" recordCount="0"/>
								<ScoreDistribution value="5" recordCount="0"/>
							</Node>
							<Node>
								<SimplePredicate field="double(Object Shape)" operator="lessOrEqual" value="0.5"/>
								<Node>
									<SimplePredicate field="double(Aspect Ratio)" operator="lessOrEqual" value="7.0"/>
									<Node score="4" recordCount="4">
										<SimplePredicate field="double(Height)" operator="lessOrEqual" value="50.0"/>
										<ScoreDistribution value="1" recordCount="0"/>
										<ScoreDistribution value="2" recordCount="0"/>
										<ScoreDistribution value="3" recordCount="0"/>
										<ScoreDistribution value="4" recordCount="4"/>
										<ScoreDistribution value="5" recordCount="0"/>
									</Node>
									<Node score="3" recordCount="1">
										<SimplePredicate field="double(Height)" operator="lessOrEqual" value="65.0"/>
										<ScoreDistribution value="1" recordCount="0"/>
										<ScoreDistribution value="2" recordCount="0"/>
										<ScoreDistribution value="3" recordCount="1"/>
										<ScoreDistribution value="4" recordCount="0"/>
										<ScoreDistribution value="5" recordCount="0"/>
									</Node>
									<Node score="4" recordCount="1">
										<True/>
										<ScoreDistribution value="1" recordCount="0"/>
										<ScoreDistribution value="2" recordCount="0"/>
										<ScoreDistribution value="3" recordCount="0"/>
										<ScoreDistribution value="4" recordCount="1"/>
										<ScoreDistribution value="5" recordCount="0"/>
									</Node>
								</Node>
								<Node score="3" recordCount="1">
									<True/>
									<ScoreDistribution value="1" recordCount="0"/>
									<ScoreDistribution value="2" recordCount="0"/>
									<ScoreDistribution value="3" recordCount="1"/>
									<ScoreDistribution value="4" recordCount="0"/>
									<ScoreDistribution value="5" recordCount="0"/>
								</Node>
							</Node>
							<Node score="3" recordCount="3">
								<SimplePredicate field="double(Height)" operator="lessOrEqual" value="35.0"/>
								<ScoreDistribution value="1" recordCount="0"/>
								<ScoreDistribution value="2" recordCount="0"/>
								<ScoreDistribution value="3" recordCount="3"/>
								<ScoreDistribution value="4" recordCount="0"/>
								<ScoreDistribution value="5" recordCount="0"/>
							</Node>
							<Node>
								<SimplePredicate field="double(Aspect Ratio)" operator="lessOrEqual" value="7.0"/>
								<Node score="4" recordCount="1">
									<SimplePredicate field="double(Height)" operator="lessOrEqual" value="55.0"/>
									<ScoreDistribution value="1" recordCount="0"/>
									<ScoreDistribution value="2" recordCount="0"/>
									<ScoreDistribution value="3" recordCount="0"/>
									<ScoreDistribution value="4" recordCount="1"/>
									<ScoreDistribution value="5" recordCount="0"/>
								</Node>
								<Node score="3" recordCount="1">
									<True/>
									<ScoreDistribution value="1" recordCount="0"/>
									<ScoreDistribution value="2" recordCount="0"/>
									<ScoreDistribution value="3" recordCount="1"/>
									<ScoreDistribution value="4" recordCount="0"/>
									<ScoreDistribution value="5" recordCount="0"/>
								</Node>
							</Node>
							<Node score="5" recordCount="1">
								<SimplePredicate field="double(Height)" operator="lessOrEqual" value="50.0"/>
								<ScoreDistribution value="1" recordCount="0"/>
								<ScoreDistribution value="2" recordCount="0"/>
								<ScoreDistribution value="3" recordCount="0"/>
								<ScoreDistribution value="4" recordCount="0"/>
								<ScoreDistribution value="5" recordCount="1"/>
							</Node>
							<Node score="4" recordCount="1">
								<True/>
								<ScoreDistribution value="1" recordCount="0"/>
								<ScoreDistribution value="2" recordCount="0"/>
								<ScoreDistribution value="3" recordCount="0"/>
								<ScoreDistribution value="4" recordCount="1"/>
								<ScoreDistribution value="5" recordCount="0"/>
							</Node>
						</Node>
						<Node>
							<SimplePredicate field="double(Object Shape)" operator="lessOrEqual" value="0.5"/>
							<Node score="4" recordCount="4">
								<SimplePredicate field="double(Height)" operator="lessOrEqual" value="85.0"/>
								<ScoreDistribution value="1" recordCount="0"/>
								<ScoreDistribution value="2" recordCount="0"/>
								<ScoreDistribution value="3" recordCount="0"/>
								<ScoreDistribution value="4" recordCount="4"/>
								<ScoreDistribution value="5" recordCount="0"/>
							</Node>
							<Node score="5" recordCount="15">
								<True/>
								<ScoreDistribution value="1" recordCount="0"/>
								<ScoreDistribution value="2" recordCount="0"/>
								<ScoreDistribution value="3" recordCount="0"/>
								<ScoreDistribution value="4" recordCount="0"/>
								<ScoreDistribution value="5" recordCount="15"/>
							</Node>
						</Node>
						<Node score="4" recordCount="10">
							<SimplePredicate field="double(Height)" operator="lessOrEqual" value="95.0"/>
							<ScoreDistribution value="1" recordCount="0"/>
							<ScoreDistribution value="2" recordCount="0"/>
							<ScoreDistribution value="3" recordCount="0"/>
							<ScoreDistribution value="4" recordCount="10"/>
							<ScoreDistribution value="5" recordCount="0"/>
						</Node>
						<Node score="4" recordCount="1">
							<SimplePredicate field="double(Aspect Ratio)" operator="lessOrEqual" value="5.0"/>
							<ScoreDistribution value="1" recordCount="0"/>
							<ScoreDistribution value="2" recordCount="0"/>
							<ScoreDistribution value="3" recordCount="0"/>
							<ScoreDistribution value="4" recordCount="1"/>
							<ScoreDistribution value="5" recordCount="0"/>
						</Node>
						<Node score="5" recordCount="1">
							<SimplePredicate field="double(Aspect Ratio)" operator="lessOrEqual" value="7.0"/>
							<ScoreDistribution value="1" recordCount="0"/>
							<ScoreDistribution value="2" recordCount="0"/>
							<ScoreDistribution value="3" recordCount="0"/>
							<ScoreDistribution value="4" recordCount="0"/>
							<ScoreDistribution value="5" recordCount="1"/>
						</Node>
						<Node score="4" recordCount="1">
							<True/>
							<ScoreDistribution value="1" recordCount="0"/>
							<ScoreDistribution value="2" recordCount="0"/>
							<ScoreDistribution value="3" recordCount="0"/>
							<ScoreDistribution value="4" recordCount="1"/>
							<ScoreDistribution value="5" recordCount="0"/>
						</Node>
					</Node>
				</TreeModel>
			</Segment>
			<Segment id="4">
				<True/>
				<TreeModel functionName="classification" missingValueStrategy="nullPrediction">
					<MiningSchema>
						<MiningField name="double(Height)"/>
						<MiningField name="double(Aspect Ratio)"/>
						<MiningField name="double(Object Shape)"/>
					</MiningSchema>
					<Node>
						<True/>
						<Node>
							<SimplePredicate field="double(Object Shape)" operator="lessOrEqual" value="0.5"/>
							<Node>
								<SimplePredicate field="double(Aspect Ratio)" operator="lessOrEqual" value="1.5"/>
								<Node>
									<SimplePredicate field="double(Height)" operator="lessOrEqual" value="45.0"/>
									<Node score="3" recordCount="1">
										<SimplePredicate field="double(Aspect Ratio)" operator="lessOrEqual" value="0.375"/>
										<ScoreDistribution value="1" recordCount="0"/>
										<ScoreDistribution value="2" recordCount="0"/>
										<ScoreDistribution value="3" recordCount="1"/>
										<ScoreDistribution value="4" recordCount="0"/>
										<ScoreDistribution value="5" recordCount="0"/>
									</Node>
									<Node score="1" recordCount="2">
										<True/>
										<ScoreDistribution value="1" recordCount="2"/>
										<ScoreDistribution value="2" recordCount="0"/>
										<ScoreDistribution value="3" recordCount="0"/>
										<ScoreDistribution value="4" recordCount="0"/>
										<ScoreDistribution value="5" recordCount="0"/>
									</Node>
								</Node>
								<Node score="1" recordCount="8">
									<SimplePredicate field="double(Height)" operator="lessOrEqual" value="75.0"/>
									<ScoreDistribution value="1" recordCount="8"/>
									<ScoreDistribution value="2" recordCount="0"/>
									<ScoreDistribution value="3" recordCount="0"/>
									<ScoreDistribution value="4" recordCount="0"/>
									<ScoreDistribution value="5" recordCount="0"/>
								</Node>
								<Node>
									<SimplePredicate field="double(Height)" operator="lessOrEqual" value="85.0"/>
									<Node score="2" recordCount="1">
										<SimplePredicate field="double(Aspect Ratio)" operator="lessOrEqual" value="0.375"/>
										<ScoreDistribution value="1" recordCount="0"/>
										<ScoreDistribution value="2" recordCount="1"/>
										<ScoreDistribution value="3" recordCount="0"/>
										<ScoreDistribution value="4" recordCount="0"/>
										<ScoreDistribution value="5" recordCount="0"/>
									</Node>
									<Node score="1" recordCount="3">
										<True/>
										<ScoreDistribution value="1" recordCount="3"/>
										<ScoreDistribution value="2" recordCount="0"/>
										<ScoreDistribution value="3" recordCount="0"/>
										<ScoreDistribution value="4" recordCount="0"/>
										<ScoreDistribution value="5" recordCount="0"/>
									</Node>
								</Node>
								<Node score="1" recordCount="4">
									<True/>
									<ScoreDistribution value="1" recordCount="4"/>
									<ScoreDistribution value="2" recordCount="0"/>
									<ScoreDistribution value="3" recordCount="0"/>
									<ScoreDistribution value="4" recordCount="0"/>
									<ScoreDistribution value="5" recordCount="0"/>
								</Node>
							</Node>
							<Node>
								<SimplePredicate field="double(Height)" operator="lessOrEqual" value="85.0"/>
								<Node>
									<SimplePredicate field="double(Height)" operator="lessOrEqual" value="75.0"/>
									<Node score="1" recordCount="9">
										<SimplePredicate field="double(Height)" operator="lessOrEqual" value="25.0"/>
										<ScoreDistribution value="1" recordCount="9"/>
										<ScoreDistribution value="2" recordCount="0"/>
										<ScoreDistribution value="3" recordCount="0"/>
										<ScoreDistribution value="4" recordCount="0"/>
										<ScoreDistribution value="5" recordCount="0"/>
									</Node>
									<Node>
										<SimplePredicate field="double(Height)" operator="lessOrEqual" value="35.0"/>
										<Node score="1" recordCount="2">
											<SimplePredicate field="double(Aspect Ratio)" operator="lessOrEqual" value="3.5"/>
											<ScoreDistribution value="1" recordCount="2"/>
											<ScoreDistribution value="2" recordCount="0"/>
											<ScoreDistribution value="3" recordCount="0"/>
											<ScoreDistribution value="4" recordCount="0"/>
											<ScoreDistribution value="5" recordCount="0"/>
										</Node>
										<Node score="2" recordCount="1">
											<SimplePredicate field="double(Aspect Ratio)" operator="lessOrEqual" value="6.0"/>
											<ScoreDistribution value="1" recordCount="0"/>
											<ScoreDistribution value="2" recordCount="1"/>
											<ScoreDistribution value="3" recordCount="0"/>
											<ScoreDistribution value="4" recordCount="0"/>
											<ScoreDistribution value="5" recordCount="0"/>
										</Node>
										<Node score="5" recordCount="1">
											<True/>
											<ScoreDistribution value="1" recordCount="0"/>
											<ScoreDistribution value="2" recordCount="0"/>
											<ScoreDistribution value="3" recordCount="0"/>
											<ScoreDistribution value="4" recordCount="0"/>
											<ScoreDistribution value="5" recordCount="1"/>
										</Node>
									</Node>
									<Node>
										<SimplePredicate field="double(Height)" operator="lessOrEqual" value="55.0"/>
										<Node>
											<SimplePredicate field="double(Height)" operator="lessOrEqual" value="45.0"/>
											<Node score="1" recordCount="1">
												<SimplePredicate field="double(Aspect Ratio)" operator="lessOrEqual" value="5.0"/>
												<ScoreDistribution value="1" recordCount="1"/>
												<ScoreDistribution value="2" recordCount="0"/>
												<ScoreDistribution value="3" recordCount="0"/>
												<ScoreDistribution value="4" recordCount="0"/>
												<ScoreDistribution value="5" recordCount="0"/>
											</Node>
											<Node score="3" recordCount="1">
												<True/>
												<ScoreDistribution value="1" recordCount="0"/>
												<ScoreDistribution value="2" recordCount="0"/>
												<ScoreDistribution value="3" recordCount="1"/>
												<ScoreDistribution value="4" recordCount="0"/>
												<ScoreDistribution value="5" recordCount="0"/>
											</Node>
										</Node>
										<Node>
											<SimplePredicate field="double(Aspect Ratio)" operator="lessOrEqual" value="3.5"/>
											<Node score="1" recordCount="2">
												<SimplePredicate field="double(Aspect Ratio)" operator="lessOrEqual" value="2.5"/>
												<ScoreDistribution value="1" recordCount="2"/>
												<ScoreDistribution value="2" recordCount="0"/>
												<ScoreDistribution value="3" recordCount="0"/>
												<ScoreDistribution value="4" recordCount="0"/>
												<ScoreDistribution value="5" recordCount="0"/>
											</Node>
											<Node score="4" recordCount="1">
												<True/>
												<ScoreDistribution value="1" recordCount="0"/>
												<ScoreDistribution value="2" recordCount="0"/>
												<ScoreDistribution value="3" recordCount="0"/>
												<ScoreDistribution value="4" recordCount="1"/>
												<ScoreDistribution value="5" recordCount="0"/>
											</Node>
										</Node>
										<Node score="3" recordCount="3">
											<True/>
											<ScoreDistribution value="1" recordCount="0"/>
											<ScoreDistribution value="2" recordCount="0"/>
											<ScoreDistribution value="3" recordCount="3"/>
											<ScoreDistribution value="4" recordCount="0"/>
											<ScoreDistribution value="5" recordCount="0"/>
										</Node>
									</Node>
									<Node score="1" recordCount="1">
										<SimplePredicate field="double(Height)" operator="lessOrEqual" value="65.0"/>
										<ScoreDistribution value="1" recordCount="1"/>
										<ScoreDistribution value="2" recordCount="0"/>
										<ScoreDistribution value="3" recordCount="0"/>
										<ScoreDistribution value="4" recordCount="0"/>
										<ScoreDistribution value="5" recordCount="0"/>
									</Node>
									<Node score="1" recordCount="1">
										<SimplePredicate field="double(Aspect Ratio)" operator="lessOrEqual" value="4.5"/>
										<ScoreDistribution value="1" recordCount="1"/>
										<ScoreDistribution value="2" recordCount="0"/>
										<ScoreDistribution value="3" recordCount="0"/>
										<ScoreDistribution value="4" recordCount="0"/>
										<ScoreDistribution value="5" recordCount="0"/>
									</Node>
									<Node score="4" recordCount="1">
										<True/>
										<ScoreDistribution value="1" recordCount="0"/>
										<ScoreDistribution value="2" recordCount="0"/>
										<ScoreDistribution value="3" recordCount="0"/>
										<ScoreDistribution value="4" recordCount="1"/>
										<ScoreDistribution value="5" recordCount="0"/>
									</Node>
								</Node>
								<Node score="4" recordCount="5">
									<True/>
									<ScoreDistribution value="1" recordCount="0"/>
									<ScoreDistribution value="2" recordCount="0"/>
									<ScoreDistribution value="3" recordCount="0"/>
									<ScoreDistribution value="4" recordCount="5"/>
									<ScoreDistribution value="5" recordCount="0"/>
								</Node>
							</Node>
							<Node score="5" recordCount="12">
								<True/>
								<ScoreDistribution value="1" recordCount="0"/>
								<ScoreDistribution value="2" recordCount="0"/>
								<ScoreDistribution value="3" recordCount="0"/>
								<ScoreDistribution value="4" recordCount="0"/>
								<ScoreDistribution value="5" recordCount="12"/>
							</Node>
						</Node>
						<Node>
							<SimplePredicate field="double(Aspect Ratio)" operator="lessOrEqual" value="1.5"/>
							<Node>
								<SimplePredicate field="double(Aspect Ratio)" operator="lessOrEqual" value="0.75"/>
								<Node>
									<SimplePredicate field="double(Height)" operator="lessOrEqual" value="85.0"/>
									<Node>
										<SimplePredicate field="double(Height)" operator="lessOrEqual" value="75.0"/>
										<Node score="1" recordCount="2">
											<SimplePredicate field="double(Height)" operator="lessOrEqual" value="30.0"/>
											<ScoreDistribution value="1" recordCount="2"/>
											<ScoreDistribution value="2" recordCount="0"/>
											<ScoreDistribution value="3" recordCount="0"/>
											<ScoreDistribution value="4" recordCount="0"/>
											<ScoreDistribution value="5" recordCount="0"/>
										</Node>
										<Node score="3" recordCount="3">
											<SimplePredicate field="double(Height)" operator="lessOrEqual" value="45.0"/>
											<ScoreDistribution value="1" recordCount="0"/>
											<ScoreDistribution value="2" recordCount="0"/>
											<ScoreDistribution value="3" recordCount="3"/>
											<ScoreDistribution value="4" recordCount="0"/>
											<ScoreDistribution value="5" recordCount="0"/>
										</Node>
										<Node score="1" recordCount="2">
											<SimplePredicate field="double(Height)" operator="lessOrEqual" value="60.0"/>
											<ScoreDistribution value="1" recordCount="2"/>
											<ScoreDistribution value="2" recordCount="0"/>
											<ScoreDistribution value="3" recordCount="0"/>
											<ScoreDistribution value="4" recordCount="0"/>
											<ScoreDistribution value="5" recordCount="0"/>
										</Node>
										<Node score="3" recordCount="1">
											<True/>
											<ScoreDistribution value="1" recordCount="0"/>
											<ScoreDistribution value="2" recordCount="0"/>
											<ScoreDistribution value="3" recordCount="1"/>
											<ScoreDistribution value="4" recordCount="0"/>
											<ScoreDistribution value="5" recordCount="0"/>
										</Node>
									</Node>
									<Node score="1" recordCount="4">
										<True/>
										<ScoreDistribution value="1" recordCount="4"/>
										<ScoreDistribution value="2" recordCount="0"/>
										<ScoreDistribution value="3" recordCount="0"/>
										<ScoreDistribution value="4" recordCount="0"/>
										<ScoreDistribution value="5" recordCount="0"/>
									</Node>
								</Node>
								<Node score="3" recordCount="1">
									<True/>
									<ScoreDistribution value="1" recordCount="0"/>
									<ScoreDistribution value="2" recordCount="0"/>
									<ScoreDistribution value="3" recordCount="1"/>
									<ScoreDistribution value="4" recordCount="0"/>
									<ScoreDistribution value="5" recordCount="0"/>
								</Node>
							</Node>
							<Node score="1" recordCount="11">
								<True/>
								<ScoreDistribution value="1" recordCount="11"/>
								<ScoreDistribution value="2" recordCount="0"/>
								<ScoreDistribution value="3" recordCount="0"/>
								<ScoreDistribution value="4" recordCount="0"/>
								<ScoreDistribution value="5" recordCount="0"/>
							</Node>
						</Node>
						<Node>
							<SimplePredicate field="double(Height)" operator="lessOrEqual" value="75.0"/>
							<Node>
								<SimplePredicate field="double(Aspect Ratio)" operator="lessOrEqual" value="3.5"/>
								<Node>
									<SimplePredicate field="double(Height)" operator="lessOrEqual" value="65.0"/>
									<Node score="1" recordCount="4">
										<SimplePredicate field="double(Height)" operator="lessOrEqual" value="35.0"/>
										<ScoreDistribution value="1" recordCount="4"/>
										<ScoreDistribution value="2" recordCount="0"/>
										<ScoreDistribution value="3" recordCount="0"/>
										<ScoreDistribution value="4" recordCount="0"/>
										<ScoreDistribution value="5" recordCount="0"/>
									</Node>
									<Node>
										<SimplePredicate field="double(Aspect Ratio)" operator="lessOrEqual" value="2.5"/>
										<Node score="1" recordCount="1">
											<SimplePredicate field="double(Height)" operator="lessOrEqual" value="50.0"/>
											<ScoreDistribution value="1" recordCount="1"/>
											<ScoreDistribution value="2" recordCount="0"/>
											<ScoreDistribution value="3" recordCount="0"/>
											<ScoreDistribution value="4" recordCount="0"/>
											<ScoreDistribution value="5" recordCount="0"/>
										</Node>
										<Node score="2" recordCount="1">
											<True/>
											<ScoreDistribution value="1" recordCount="0"/>
											<ScoreDistribution value="2" recordCount="1"/>
											<ScoreDistribution value="3" recordCount="0"/>
											<ScoreDistribution value="4" recordCount="0"/>
											<ScoreDistribution value="5" recordCount="0"/>
										</Node>
									</Node>
									<Node score="2" recordCount="1">
										<SimplePredicate field="double(Height)" operator="lessOrEqual" value="50.0"/>
										<ScoreDistribution value="1" recordCount="0"/>
										<ScoreDistribution value="2" recordCount="1"/>
										<ScoreDistribution value="3" recordCount="0"/>
										<ScoreDistribution value="4" recordCount="0"/>
										<ScoreDistribution value="5" recordCount="0"/>
									</Node>
									<Node score="1" recordCount="2">
										<True/>
										<ScoreDistribution value="1" recordCount="2"/>
										<ScoreDistribution value="2" recordCount="0"/>
										<ScoreDistribution value="3" recordCount="0"/>
										<ScoreDistribution value="4" recordCount="0"/>
										<ScoreDistribution value="5" recordCount="0"/>
									</Node>
								</Node>
								<Node score="2" recordCount="1">
									<SimplePredicate field="double(Aspect Ratio)" operator="lessOrEqual" value="2.5"/>
									<ScoreDistribution value="1" recordCount="0"/>
									<ScoreDistribution value="2" recordCount="1"/>
									<ScoreDistribution value="3" recordCount="0"/>
									<ScoreDistribution value="4" recordCount="0"/>
									<ScoreDistribution value="5" recordCount="0"/>
								</Node>
								<Node score="3" recordCount="1">
									<True/>
									<ScoreDistribution value="1" recordCount="0"/>
									<ScoreDistribution value="2" recordCount="0"/>
									<ScoreDistribution value="3" recordCount="1"/>
									<ScoreDistribution value="4" recordCount="0"/>
									<ScoreDistribution value="5" recordCount="0"/>
								</Node>
							</Node>
							<Node>
								<SimplePredicate field="double(Aspect Ratio)" operator="lessOrEqual" value="5.0"/>
								<Node score="1" recordCount="3">
									<SimplePredicate field="double(Height)" operator="lessOrEqual" value="45.0"/>
									<ScoreDistribution value="1" recordCount="3"/>
									<ScoreDistribution value="2" recordCount="0"/>
									<ScoreDistribution value="3" recordCount="0"/>
									<ScoreDistribution value="4" recordCount="0"/>
									<ScoreDistribution value="5" recordCount="0"/>
								</Node>
								<Node>
									<SimplePredicate field="double(Height)" operator="lessOrEqual" value="65.0"/>
									<Node score="4" recordCount="1">
										<SimplePredicate field="double(Height)" operator="lessOrEqual" value="55.0"/>
										<ScoreDistribution value="1" recordCount="0"/>
										<ScoreDistribution value="2" recordCount="0"/>
										<ScoreDistribution value="3" recordCount="0"/>
										<ScoreDistribution value="4" recordCount="1"/>
										<ScoreDistribution value="5" recordCount="0"/>
									</Node>
									<Node score="3" recordCount="2">
										<True/>
										<ScoreDistribution value="1" recordCount="0"/>
										<ScoreDistribution value="2" recordCount="0"/>
										<ScoreDistribution value="3" recordCount="2"/>
										<ScoreDistribution value="4" recordCount="0"/>
										<ScoreDistribution value="5" recordCount="0"/>
									</Node>
								</Node>
								<Node score="4" recordCount="2">
									<True/>
									<ScoreDistribution value="1" recordCount="0"/>
									<ScoreDistribution value="2" recordCount="0"/>
									<ScoreDistribution value="3" recordCount="0"/>
									<ScoreDistribution value="4" recordCount="2"/>
									<ScoreDistribution value="5" recordCount="0"/>
								</Node>
							</Node>
							<Node>
								<SimplePredicate field="double(Aspect Ratio)" operator="lessOrEqual" value="7.0"/>
								<Node score="1" recordCount="1">
									<SimplePredicate field="double(Height)" operator="lessOrEqual" value="25.0"/>
									<ScoreDistribution value="1" recordCount="1"/>
									<ScoreDistribution value="2" recordCount="0"/>
									<ScoreDistribution value="3" recordCount="0"/>
									<ScoreDistribution value="4" recordCount="0"/>
									<ScoreDistribution value="5" recordCount="0"/>
								</Node>
								<Node>
									<SimplePredicate field="double(Height)" operator="lessOrEqual" value="55.0"/>
									<Node score="3" recordCount="2">
										<SimplePredicate field="double(Height)" operator="lessOrEqual" value="40.0"/>
										<ScoreDistribution value="1" recordCount="0"/>
										<ScoreDistribution value="2" recordCount="0"/>
										<ScoreDistribution value="3" recordCount="2"/>
										<ScoreDistribution value="4" recordCount="0"/>
										<ScoreDistribution value="5" recordCount="0"/>
									</Node>
									<Node score="4" recordCount="1">
										<True/>
										<ScoreDistribution value="1" recordCount="0"/>
										<ScoreDistribution value="2" recordCount="0"/>
										<ScoreDistribution value="3" recordCount="0"/>
										<ScoreDistribution value="4" recordCount="1"/>
										<ScoreDistribution value="5" recordCount="0"/>
									</Node>
								</Node>
								<Node score="3" recordCount="4">
									<True/>
									<ScoreDistribution value="1" recordCount="0"/>
									<ScoreDistribution value="2" recordCount="0"/>
									<ScoreDistribution value="3" recordCount="4"/>
									<ScoreDistribution value="4" recordCount="0"/>
									<ScoreDistribution value="5" recordCount="0"/>
								</Node>
							</Node>
							<Node score="4" recordCount="1">
								<True/>
								<ScoreDistribution value="1" recordCount="0"/>
								<ScoreDistribution value="2" recordCount="0"/>
								<ScoreDistribution value="3" recordCount="0"/>
								<ScoreDistribution value="4" recordCount="1"/>
								<ScoreDistribution value="5" recordCount="0"/>
							</Node>
						</Node>
						<Node>
							<SimplePredicate field="double(Aspect Ratio)" operator="lessOrEqual" value="3.5"/>
							<Node>
								<SimplePredicate field="double(Aspect Ratio)" operator="lessOrEqual" value="2.5"/>
								<Node score="4" recordCount="3">
									<SimplePredicate field="double(Height)" operator="lessOrEqual" value="95.0"/>
									<ScoreDistribution value="1" recordCount="0"/>
									<ScoreDistribution value="2" recordCount="0"/>
									<ScoreDistribution value="3" recordCount="0"/>
									<ScoreDistribution value="4" recordCount="3"/>
									<ScoreDistribution value="5" recordCount="0"/>
								</Node>
								<Node score="5" recordCount="2">
									<True/>
									<ScoreDistribution value="1" recordCount="0"/>
									<ScoreDistribution value="2" recordCount="0"/>
									<ScoreDistribution value="3" recordCount="0"/>
									<ScoreDistribution value="4" recordCount="0"/>
									<ScoreDistribution value="5" recordCount="2"/>
								</Node>
							</Node>
							<Node score="4" recordCount="4">
								<SimplePredicate field="double(Height)" operator="lessOrEqual" value="95.0"/>
								<ScoreDistribution value="1" recordCount="0"/>
								<ScoreDistribution value="2" recordCount="0"/>
								<ScoreDistribution value="3" recordCount="0"/>
								<ScoreDistribution value="4" recordCount="4"/>
								<ScoreDistribution value="5" recordCount="0"/>
							</Node>
							<Node score="5" recordCount="1">
								<True/>
								<ScoreDistribution value="1" recordCount="0"/>
								<ScoreDistribution value="2" recordCount="0"/>
								<ScoreDistribution value="3" recordCount="0"/>
								<ScoreDistribution value="4" recordCount="0"/>
								<ScoreDistribution value="5" recordCount="1"/>
							</Node>
						</Node>
						<Node score="4" recordCount="7">
							<True/>
							<ScoreDistribution value="1" recordCount="0"/>
							<ScoreDistribution value="2" recordCount="0"/>
							<ScoreDistribution value="3" recordCount="0"/>
							<ScoreDistribution value="4" recordCount="7"/>
							<ScoreDistribution value="5" recordCount="0"/>
						</Node>
					</Node>
				</TreeModel>
			</Segment>
			<Segment id="5">
				<True/>
				<TreeModel functionName="classification" missingValueStrategy="nullPrediction">
					<MiningSchema>
						<MiningField name="double(Height)"/>
						<MiningField name="double(Aspect Ratio)"/>
						<MiningField name="double(Object Shape)"/>
					</MiningSchema>
					<Node>
						<True/>
						<Node score="1" recordCount="16">
							<SimplePredicate field="double(Height)" operator="lessOrEqual" value="25.0"/>
							<ScoreDistribution value="1" recordCount="16"/>
							<ScoreDistribution value="2" recordCount="0"/>
							<ScoreDistribution value="3" recordCount="0"/>
							<ScoreDistribution value="4" recordCount="0"/>
							<ScoreDistribution value="5" recordCount="0"/>
						</Node>
						<Node>
							<SimplePredicate field="double(Aspect Ratio)" operator="lessOrEqual" value="1.5"/>
							<Node>
								<SimplePredicate field="double(Aspect Ratio)" operator="lessOrEqual" value="0.375"/>
								<Node>
									<SimplePredicate field="double(Object Shape)" operator="lessOrEqual" value="0.5"/>
									<Node score="3" recordCount="3">
										<SimplePredicate field="double(Height)" operator="lessOrEqual" value="60.0"/>
										<ScoreDistribution value="1" recordCount="0"/>
										<ScoreDistribution value="2" recordCount="0"/>
										<ScoreDistribution value="3" recordCount="3"/>
										<ScoreDistribution value="4" recordCount="0"/>
										<ScoreDistribution value="5" recordCount="0"/>
									</Node>
									<Node score="2" recordCount="1">
										<SimplePredicate field="double(Height)" operator="lessOrEqual" value="90.0"/>
										<ScoreDistribution value="1" recordCount="0"/>
										<ScoreDistribution value="2" recordCount="1"/>
										<ScoreDistribution value="3" recordCount="0"/>
										<ScoreDistribution value="4" recordCount="0"/>
										<ScoreDistribution value="5" recordCount="0"/>
									</Node>
									<Node score="1" recordCount="2">
										<True/>
										<ScoreDistribution value="1" recordCount="2"/>
										<ScoreDistribution value="2" recordCount="0"/>
										<ScoreDistribution value="3" recordCount="0"/>
										<ScoreDistribution value="4" recordCount="0"/>
										<ScoreDistribution value="5" recordCount="0"/>
									</Node>
								</Node>
								<Node score="2" recordCount="2">
									<SimplePredicate field="double(Height)" operator="lessOrEqual" value="35.0"/>
									<ScoreDistribution value="1" recordCount="0"/>
									<ScoreDistribution value="2" recordCount="2"/>
									<ScoreDistribution value="3" recordCount="0"/>
									<ScoreDistribution value="4" recordCount="0"/>
									<ScoreDistribution value="5" recordCount="0"/>
								</Node>
								<Node score="3" recordCount="1">
									<True/>
									<ScoreDistribution value="1" recordCount="0"/>
									<ScoreDistribution value="2" recordCount="0"/>
									<ScoreDistribution value="3" recordCount="1"/>
									<ScoreDistribution value="4" recordCount="0"/>
									<ScoreDistribution value="5" recordCount="0"/>
								</Node>
							</Node>
							<Node>
								<SimplePredicate field="double(Aspect Ratio)" operator="lessOrEqual" value="0.75"/>
								<Node score="1" recordCount="4">
									<SimplePredicate field="double(Height)" operator="lessOrEqual" value="65.0"/>
									<ScoreDistribution value="1" recordCount="4"/>
									<ScoreDistribution value="2" recordCount="0"/>
									<ScoreDistribution value="3" recordCount="0"/>
									<ScoreDistribution value="4" recordCount="0"/>
									<ScoreDistribution value="5" recordCount="0"/>
								</Node>
								<Node score="1" recordCount="3">
									<SimplePredicate field="double(Object Shape)" operator="lessOrEqual" value="0.5"/>
									<ScoreDistribution value="1" recordCount="3"/>
									<ScoreDistribution value="2" recordCount="0"/>
									<ScoreDistribution value="3" recordCount="0"/>
									<ScoreDistribution value="4" recordCount="0"/>
									<ScoreDistribution value="5" recordCount="0"/>
								</Node>
								<Node score="3" recordCount="2">
									<SimplePredicate field="double(Height)" operator="lessOrEqual" value="80.0"/>
									<ScoreDistribution value="1" recordCount="0"/>
									<ScoreDistribution value="2" recordCount="0"/>
									<ScoreDistribution value="3" recordCount="2"/>
									<ScoreDistribution value="4" recordCount="0"/>
									<ScoreDistribution value="5" recordCount="0"/>
								</Node>
								<Node score="1" recordCount="4">
									<True/>
									<ScoreDistribution value="1" recordCount="4"/>
									<ScoreDistribution value="2" recordCount="0"/>
									<ScoreDistribution value="3" recordCount="0"/>
									<ScoreDistribution value="4" recordCount="0"/>
									<ScoreDistribution value="5" recordCount="0"/>
								</Node>
							</Node>
							<Node score="1" recordCount="13">
								<SimplePredicate field="double(Height)" operator="lessOrEqual" value="90.0"/>
								<ScoreDistribution value="1" recordCount="13"/>
								<ScoreDistribution value="2" recordCount="0"/>
								<ScoreDistribution value="3" recordCount="0"/>
								<ScoreDistribution value="4" recordCount="0"/>
								<ScoreDistribution value="5" recordCount="0"/>
							</Node>
							<Node score="5" recordCount="1">
								<SimplePredicate field="double(Object Shape)" operator="lessOrEqual" value="0.5"/>
								<ScoreDistribution value="1" recordCount="0"/>
								<ScoreDistribution value="2" recordCount="0"/>
								<ScoreDistribution value="3" recordCount="0"/>
								<ScoreDistribution value="4" recordCount="0"/>
								<ScoreDistribution value="5" recordCount="1"/>
							</Node>
							<Node score="4" recordCount="2">
								<True/>
								<ScoreDistribution value="1" recordCount="0"/>
								<ScoreDistribution value="2" recordCount="0"/>
								<ScoreDistribution value="3" recordCount="0"/>
								<ScoreDistribution value="4" recordCount="2"/>
								<ScoreDistribution value="5" recordCount="0"/>
							</Node>
						</Node>
						<Node>
							<SimplePredicate field="double(Aspect Ratio)" operator="lessOrEqual" value="5.0"/>
							<Node>
								<SimplePredicate field="double(Aspect Ratio)" operator="lessOrEqual" value="2.5"/>
								<Node>
									<SimplePredicate field="double(Object Shape)" operator="lessOrEqual" value="0.5"/>
									<Node score="1" recordCount="4">
										<SimplePredicate field="double(Height)" operator="lessOrEqual" value="70.0"/>
										<ScoreDistribution value="1" recordCount="4"/>
										<ScoreDistribution value="2" recordCount="0"/>
										<ScoreDistribution value="3" recordCount="0"/>
										<ScoreDistribution value="4" recordCount="0"/>
										<ScoreDistribution value="5" recordCount="0"/>
									</Node>
									<Node score="5" recordCount="3">
										<True/>
										<ScoreDistribution value="1" recordCount="0"/>
										<ScoreDistribution value="2" recordCount="0"/>
										<ScoreDistribution value="3" recordCount="0"/>
										<ScoreDistribution value="4" recordCount="0"/>
										<ScoreDistribution value="5" recordCount="3"/>
									</Node>
								</Node>
								<Node>
									<SimplePredicate field="double(Height)" operator="lessOrEqual" value="70.0"/>
									<Node score="1" recordCount="1">
										<SimplePredicate field="double(Height)" operator="lessOrEqual" value="50.0"/>
										<ScoreDistribution value="1" recordCount="1"/>
										<ScoreDistribution value="2" recordCount="0"/>
										<ScoreDistribution value="3" recordCount="0"/>
										<ScoreDistribution value="4" recordCount="0"/>
										<ScoreDistribution value="5" recordCount="0"/>
									</Node>
									<Node score="2" recordCount="4">
										<True/>
										<ScoreDistribution value="1" recordCount="0"/>
										<ScoreDistribution value="2" recordCount="4"/>
										<ScoreDistribution value="3" recordCount="0"/>
										<ScoreDistribution value="4" recordCount="0"/>
										<ScoreDistribution value="5" recordCount="0"/>
									</Node>
								</Node>
								<Node score="4" recordCount="1">
									<SimplePredicate field="double(Height)" operator="lessOrEqual" value="90.0"/>
									<ScoreDistribution value="1" recordCount="0"/>
									<ScoreDistribution value="2" recordCount="0"/>
									<ScoreDistribution value="3" recordCount="0"/>
									<ScoreDistribution value="4" recordCount="1"/>
									<ScoreDistribution value="5" recordCount="0"/>
								</Node>
								<Node score="5" recordCount="1">
									<True/>
									<ScoreDistribution value="1" recordCount="0"/>
									<ScoreDistribution value="2" recordCount="0"/>
									<ScoreDistribution value="3" recordCount="0"/>
									<ScoreDistribution value="4" recordCount="0"/>
									<ScoreDistribution value="5" recordCount="1"/>
								</Node>
							</Node>
							<Node>
								<SimplePredicate field="double(Object Shape)" operator="lessOrEqual" value="0.5"/>
								<Node>
									<SimplePredicate field="double(Aspect Ratio)" operator="lessOrEqual" value="3.5"/>
									<Node>
										<SimplePredicate field="double(Height)" operator="lessOrEqual" value="45.0"/>
										<Node score="1" recordCount="1">
											<SimplePredicate field="double(Height)" operator="lessOrEqual" value="35.0"/>
											<ScoreDistribution value="1" recordCount="1"/>
											<ScoreDistribution value="2" recordCount="0"/>
											<ScoreDistribution value="3" recordCount="0"/>
											<ScoreDistribution value="4" recordCount="0"/>
											<ScoreDistribution value="5" recordCount="0"/>
										</Node>
										<Node score="2" recordCount="4">
											<True/>
											<ScoreDistribution value="1" recordCount="0"/>
											<ScoreDistribution value="2" recordCount="4"/>
											<ScoreDistribution value="3" recordCount="0"/>
											<ScoreDistribution value="4" recordCount="0"/>
											<ScoreDistribution value="5" recordCount="0"/>
										</Node>
									</Node>
									<Node>
										<SimplePredicate field="double(Height)" operator="lessOrEqual" value="90.0"/>
										<Node score="4" recordCount="3">
											<SimplePredicate field="double(Height)" operator="lessOrEqual" value="60.0"/>
											<ScoreDistribution value="1" recordCount="0"/>
											<ScoreDistribution value="2" recordCount="0"/>
											<ScoreDistribution value="3" recordCount="0"/>
											<ScoreDistribution value="4" recordCount="3"/>
											<ScoreDistribution value="5" recordCount="0"/>
										</Node>
										<Node score="1" recordCount="1">
											<SimplePredicate field="double(Height)" operator="lessOrEqual" value="75.0"/>
											<ScoreDistribution value="1" recordCount="1"/>
											<ScoreDistribution value="2" recordCount="0"/>
											<ScoreDistribution value="3" recordCount="0"/>
											<ScoreDistribution value="4" recordCount="0"/>
											<ScoreDistribution value="5" recordCount="0"/>
										</Node>
										<Node score="4" recordCount="1">
											<True/>
											<ScoreDistribution value="1" recordCount="0"/>
											<ScoreDistribution value="2" recordCount="0"/>
											<ScoreDistribution value="3" recordCount="0"/>
											<ScoreDistribution value="4" recordCount="1"/>
											<ScoreDistribution value="5" recordCount="0"/>
										</Node>
									</Node>
									<Node score="5" recordCount="2">
										<True/>
										<ScoreDistribution value="1" recordCount="0"/>
										<ScoreDistribution value="2" recordCount="0"/>
										<ScoreDistribution value="3" recordCount="0"/>
										<ScoreDistribution value="4" recordCount="0"/>
										<ScoreDistribution value="5" recordCount="2"/>
									</Node>
								</Node>
								<Node score="2" recordCount="2">
									<SimplePredicate field="double(Height)" operator="lessOrEqual" value="40.0"/>
									<ScoreDistribution value="1" recordCount="0"/>
									<ScoreDistribution value="2" recordCount="2"/>
									<ScoreDistribution value="3" recordCount="0"/>
									<ScoreDistribution value="4" recordCount="0"/>
									<ScoreDistribution value="5" recordCount="0"/>
								</Node>
								<Node score="3" recordCount="1">
									<SimplePredicate field="double(Height)" operator="lessOrEqual" value="70.0"/>
									<ScoreDistribution value="1" recordCount="0"/>
									<ScoreDistribution value="2" recordCount="0"/>
									<ScoreDistribution value="3" recordCount="1"/>
									<ScoreDistribution value="4" recordCount="0"/>
									<ScoreDistribution value="5" recordCount="0"/>
								</Node>
								<Node score="5" recordCount="1">
									<True/>
									<ScoreDistribution value="1" recordCount="0"/>
									<ScoreDistribution value="2" recordCount="0"/>
									<ScoreDistribution value="3" recordCount="0"/>
									<ScoreDistribution value="4" recordCount="0"/>
									<ScoreDistribution value="5" recordCount="1"/>
								</Node>
							</Node>
							<Node>
								<SimplePredicate field="double(Aspect Ratio)" operator="lessOrEqual" value="3.5"/>
								<Node score="2" recordCount="3">
